svm_type c_svc
kernel_type linear
nr_class 2
total_sv 22
rho -2.10727
label 0 1
probA -0.875889
probB -1.22999
nr_sv 13 9
SV
1.935693763180915 0:0.39429695 1:0.35 2:0.22696502 3:1 4:0.45319741 5:1 6:0 7:0.27281257 8:0 9:0 10:0 11:1 12:0 13:0 14:0 15:0 16:0 17:0 
2.861049892381275 0:0.65585054 1:0.8 2:0.11064601 3:0.14583333 4:0.022706209 5:0.035783099 6:0 7:0.94410755 8:0 9:0 10:0 11:0 12:0 13:0 14:0 15:1 16:0 17:0 
10 0:0.013765978 1:0.85 2:0.22287827 3:0.5 4:0 5:0 6:0 7:0.53056738 8:0 9:0 10:0 11:0 12:0 13:0 14:0 15:1 16:0 17:0 
2.136801363047506 0:0.0039331367 1:0 2:0.16797384 3:0 4:0.0060240964 5:0.037434627 6:0 7:0.54558721 8:0 9:0 10:0 11:0 12:0 13:0 14:0 15:1 16:0 17:0 
0.4695930735954417 0:1 1:0.65 2:0.55667984 3:0.35416667 4:1 5:0.022295623 6:0 7:0.28756634 8:0 9:0 10:0 11:0 12:1 13:0 14:0 15:0 16:0 17:0 
2.504471025446136 0:0.0019665683 1:0.5 2:0.25135742 3:0.375 4:0.00046339203 5:0 6:0 7:0.64609583 8:0 9:0 10:0 11:0 12:0 13:0 14:0 15:1 16:0 17:0 
3.517416159737542 0:0.020648968 1:0.7 2:0.014215518 3:0.16666667 4:0.0041705283 5:0 6:0 7:0 8:0 9:0 10:0 11:0 12:0 13:0 14:0 15:1 16:0 17:0 
10 0:0.019993445 1:0.8 2:0.26542603 3:0.52083333 4:0.0037071362 5:0.20754198 6:0.01420839 7:0.35956491 8:0 9:0 10:0 11:0 12:0 13:0 14:0 15:1 16:0 17:0 
4.919784617555212 0:0.00032776139 1:0.7 2:0 3:0.22916667 4:0.0069508804 5:0.061106524 6:0.00202977 7:0.89725231 8:1 9:0 10:0 11:0 12:0 13:0 14:0 15:0 16:0 17:0 
10 0:0.013765978 1:0.55 2:0.18060403 3:0.020833333 4:0 5:0 6:0 7:0.53848279 8:0 9:0 10:0 11:0 12:0 13:0 14:0 15:1 16:0 17:0 
10 0:0.13438217 1:0.65 2:0.35283002 3:0.4375 4:0.00046339203 5:0 6:0 7:0.59274776 8:0 9:0 10:0 11:0 12:0 13:0 14:0 15:1 16:0 17:0 
10 0:0.078990495 1:0.6 2:0.12183531 3:0.1875 4:0.021316033 5:0.1285439 6:0 7:0.48716857 8:0 9:0 10:0 11:0 12:0 13:0 14:0 15:1 16:0 17:0 
10 0:0.0013110456 1:0.55 2:0.015100128 3:0.47916667 4:0.0023169601 5:0.094687586 6:0 7:0.80415007 8:1 9:0 10:0 11:0 12:0 13:0 14:0 15:0 16:0 17:0 
-10 0:0.099311701 1:0.4 2:0.5451963 3:0.4375 4:0.049119555 5:0.058353977 6:0 7:0.27765281 8:0 9:0 10:0 11:0 12:0 13:0 14:0 15:1 16:0 17:0 
-10 0:0.36709276 1:0.75 2:0.28096302 3:0.20833333 4:0.0060240964 5:0.042664465 6:0 7:0.73160153 8:0 9:0 10:0 11:0 12:0 13:0 14:0 15:1 16:0 17:0 
-2.000057251729745 0:0.26286463 1:0.25 2:0.043905633 3:0.5625 4:0.12511585 5:0.94660061 6:0.058186739 7:0.92796951 8:0 9:0 10:0 11:0 12:0 13:0 14:0 15:1 16:0 17:0 
-6.344752643214284 0:0.020321206 1:0.65 2:0.89580706 3:0.625 4:0.017145505 5:0.036608863 6:0 7:0.47044068 8:1 9:0 10:0 11:0 12:0 13:0 14:0 15:0 16:0 17:0 
-10 0:0.040970174 1:0.75 2:0.0077991252 3:0.35416667 4:0.014828545 5:0.098541151 6:0 7:0.50210926 8:0 9:0 10:0 11:0 12:0 13:0 14:0 15:1 16:0 17:0 
-10 0:0.010816126 1:0.7 2:0.010467544 3:0.22916667 4:0 5:0.050922103 6:0 7:0.63793776 8:1 9:0 10:0 11:0 12:0 13:0 14:0 15:0 16:0 17:0 
-10 0:0.0013110456 1:0.75 2:0.00024558264 3:0.0625 4:0.02965709 5:0.25626204 6:0.0033829499 7:0.68221247 8:0 9:0 10:0 11:0 12:0 13:0 14:0 15:1 16:0 17:0 
-10 0:0.036709276 1:0.6 2:0.12378446 3:0.45833333 4:0.037998146 5:0.22515827 6:0 7:0.53546733 8:0 9:0 10:0 11:0 12:0 13:0 14:0 15:1 16:0 17:0 
-10 0:0 1:0.65 2:0.03277705 3:0.375 4:0.0097312326 5:0.0046793284 6:0 7:0.45594823 8:0 9:0 10:0 11:0 12:0 13:0 14:0 15:1 16:0 17:0 
